// ============================================================
// AUTO-GENERATED via m2cgen — XGBoost Regressor -> JavaScript
// Feature order: ['BMI', 'Ratio_R', 'Red_Slope', 'IR_Slope', 'Red_Skew', 'IR_Skew']
// ============================================================

// Bandpass filter coefficients (Butterworth order-3, 0.5-8 Hz at 100 Hz)
const FILTER_B = [0.008598686086321946, 0.0, -0.02579605825896584, 0.0, 0.02579605825896584, 0.0, -0.008598686086321946];
const FILTER_A = [1.0, -5.024443939606643, 10.576969243859027, -11.96498816770208, 7.683066973585408, -2.6566649009824506, 0.3860633691662536];

// StandardScaler parameters
const SCALER_MEAN  = [26.950000000000006, 0.49825130142493, 16.194914581429728, 40.8374473291257, -0.013148282644042835, 0.06124806219821874];
const SCALER_SCALE = [5.234656668281369, 0.15337804615452696, 19.545670280971674, 41.82768376749921, 0.8885759051261825, 0.6825072237225741];

function _xgbScore(input) {
    var var0;
    if (input[2] < 1.0636872) {
        if (input[2] < -0.23701783) {
            if (input[2] < -0.3573539) {
                if (input[1] < -0.2345745) {
                    var0 = 0.25434777;
                } else {
                    var0 = -0.7656128;
                }
            } else {
                if (input[0] < 0.60175866) {
                    var0 = -1.5018634;
                } else {
                    var0 = -0.076087;
                }
            }
        } else {
            if (input[5] < -0.30659515) {
                if (input[5] < -1.3888807) {
                    var0 = 0.331884;
                } else {
                    var0 = -0.757488;
                }
            } else {
                if (input[0] < 0.48713797) {
                    var0 = 0.46242228;
                } else {
                    var0 = 2.4485507;
                }
            }
        }
    } else {
        var0 = 2.4582608;
    }
    var var1;
    if (input[2] < 1.0636872) {
        if (input[2] < -0.23701783) {
            if (input[2] < -0.3573539) {
                if (input[4] < -0.23648743) {
                    var1 = 0.5086856;
                } else {
                    var1 = -0.6169002;
                }
            } else {
                if (input[0] < 0.60175866) {
                    var1 = -1.437498;
                } else {
                    var1 = -0.0741848;
                }
            }
        } else {
            if (input[5] < -0.30659515) {
                if (input[5] < -1.3888807) {
                    var1 = 0.32082114;
                } else {
                    var1 = -0.72382206;
                }
            } else {
                if (input[0] < 0.48713797) {
                    var1 = 0.44260406;
                } else {
                    var1 = 2.3669326;
                }
            }
        }
    } else {
        if (input[0] < 0.67817247) {
            var1 = 2.593685;
        } else {
            var1 = 0.7124565;
        }
    }
    var var2;
    if (input[2] < 1.0636872) {
        if (input[2] < -0.23701783) {
            if (input[0] < 0.33431038) {
                if (input[1] < -0.7672159) {
                    var2 = 1.0829767;
                } else {
                    var2 = -1.1845582;
                }
            } else {
                if (input[3] < -0.5923942) {
                    var2 = 1.196575;
                } else {
                    var2 = -0.74228305;
                }
            }
        } else {
            if (input[5] < -0.30659515) {
                if (input[5] < -1.3888807) {
                    var2 = 0.310127;
                } else {
                    var2 = -0.6916521;
                }
            } else {
                if (input[0] < 0.48713797) {
                    var2 = 0.42363533;
                } else {
                    var2 = 2.2880347;
                }
            }
        }
    } else {
        if (input[0] < 0.67817247) {
            var2 = 2.4964218;
        } else {
            var2 = 0.6946451;
        }
    }
    var var3;
    if (input[2] < 1.0636872) {
        if (input[2] < -0.23701783) {
            if (input[2] < -0.3573539) {
                if (input[1] < -0.2345745) {
                    var3 = 0.26829836;
                } else {
                    var3 = -0.6811311;
                }
            } else {
                if (input[0] < 0.60175866) {
                    var3 = -1.3314422;
                } else {
                    var3 = -0.053772926;
                }
            }
        } else {
            if (input[5] < -0.30659515) {
                if (input[5] < -1.3888807) {
                    var3 = 0.29978943;
                } else {
                    var3 = -0.6609121;
                }
            } else {
                if (input[0] < 0.48713797) {
                    var3 = 0.40547943;
                } else {
                    var3 = 2.211767;
                }
            }
        }
    } else {
        var3 = 2.1931562;
    }
    var var4;
    if (input[2] < 1.0636872) {
        if (input[2] < -0.23701783) {
            if (input[0] < 0.33431038) {
                if (input[1] < -0.7672159) {
                    var4 = 1.0491949;
                } else {
                    var4 = -1.0988193;
                }
            } else {
                if (input[3] < -0.5923942) {
                    var4 = 1.1535105;
                } else {
                    var4 = -0.68173456;
                }
            }
        } else {
            if (input[5] < -0.30659515) {
                if (input[5] < -1.3888807) {
                    var4 = 0.28979644;
                } else {
                    var4 = -0.6315382;
                }
            } else {
                if (input[0] < 0.48713797) {
                    var4 = 0.38810176;
                } else {
                    var4 = 2.1380413;
                }
            }
        }
    } else {
        if (input[0] < 0.67817247) {
            var4 = 2.3205628;
        } else {
            var4 = 0.62245005;
        }
    }
    var var5;
    if (input[2] < 1.0636872) {
        if (input[2] < -0.23701783) {
            if (input[2] < -0.3573539) {
                if (input[4] < -0.23648743) {
                    var5 = 0.504755;
                } else {
                    var5 = -0.51556015;
                }
            } else {
                if (input[0] < 0.60175866) {
                    var5 = -1.2332467;
                } else {
                    var5 = -0.03538532;
                }
            }
        } else {
            if (input[5] < -0.30659515) {
                if (input[5] < -1.3888807) {
                    var5 = 0.28013662;
                } else {
                    var5 = -0.60346985;
                }
            } else {
                if (input[0] < 0.48713797) {
                    var5 = 0.3714689;
                } else {
                    var5 = 2.0667732;
                }
            }
        }
    } else {
        if (input[0] < 0.67817247) {
            var5 = 2.2335415;
        } else {
            var5 = 0.6068888;
        }
    }
    var var6;
    if (input[2] < 1.0636872) {
        if (input[0] < 0.33431038) {
            if (input[3] < -0.37703776) {
                if (input[0] < -1.2894828) {
                    var6 = -0.020342542;
                } else {
                    var6 = -1.274619;
                }
            } else {
                if (input[0] < -0.48713797) {
                    var6 = 0.6403998;
                } else {
                    var6 = -0.57647985;
                }
            }
        } else {
            if (input[5] < -0.41518694) {
                if (input[5] < -1.3888807) {
                    var6 = 0.27079877;
                } else {
                    var6 = -0.90104884;
                }
            } else {
                if (input[4] < 0.2074156) {
                    var6 = 1.0373843;
                } else {
                    var6 = -0.28627372;
                }
            }
        }
    } else {
        if (input[0] < 0.67817247) {
            var6 = 2.1497838;
        } else {
            var6 = 0.5917166;
        }
    }
    var var7;
    if (input[2] < 1.0636872) {
        if (input[2] < -0.23701783) {
            if (input[2] < -0.3573539) {
                if (input[1] < -0.7672159) {
                    var7 = 1.019844;
                } else {
                    var7 = -0.36551705;
                }
            } else {
                if (input[0] < 0.60175866) {
                    var7 = -1.1599096;
                } else {
                    var7 = -0.060435295;
                }
            }
        } else {
            if (input[5] < -0.30659515) {
                if (input[5] < -1.3888807) {
                    var7 = 0.26177216;
                } else {
                    var7 = -0.55926913;
                }
            } else {
                if (input[0] < 0.48713797) {
                    var7 = 0.35210627;
                } else {
                    var7 = 1.9633013;
                }
            }
        }
    } else {
        if (input[0] < 0.67817247) {
            var7 = 2.0691667;
        } else {
            var7 = 0.5769238;
        }
    }
    var var8;
    if (input[2] < 1.0636872) {
        if (input[0] < 0.33431038) {
            if (input[3] < -0.37703776) {
                if (input[0] < -1.2894828) {
                    var8 = -0.0058729174;
                } else {
                    var8 = -1.1962341;
                }
            } else {
                if (input[0] < -0.48713797) {
                    var8 = 0.60107595;
                } else {
                    var8 = -0.5261178;
                }
            }
        } else {
            if (input[5] < -0.41518694) {
                if (input[5] < -1.3888807) {
                    var8 = 0.25304642;
                } else {
                    var8 = -0.8385672;
                }
            } else {
                if (input[4] < 0.2074156) {
                    var8 = 0.9854426;
                } else {
                    var8 = -0.26737848;
                }
            }
        }
    } else {
        var8 = 1.8182585;
    }
    var var9;
    if (input[2] < 1.0636872) {
        if (input[2] < -0.23701783) {
            if (input[2] < -0.3573539) {
                if (input[4] < -0.23648743) {
                    var9 = 0.4836997;
                } else {
                    var9 = -0.43480444;
                }
            } else {
                if (input[0] < 0.60175866) {
                    var9 = -1.0914297;
                } else {
                    var9 = -0.08356056;
                }
            }
        } else {
            if (input[5] < -0.30659515) {
                if (input[5] < -1.3888807) {
                    var9 = 0.24461162;
                } else {
                    var9 = -0.5184948;
                }
            } else {
                if (input[0] < 0.48713797) {
                    var9 = 0.33356172;
                } else {
                    var9 = 1.8650101;
                }
            }
        }
    } else {
        if (input[0] < 0.67817247) {
            var9 = 1.9233884;
        } else {
            var9 = 0.51704407;
        }
    }
    var var10;
    if (input[2] < 1.0636872) {
        if (input[0] < 0.33431038) {
            if (input[3] < -0.37703776) {
                if (input[0] < -1.2894828) {
                    var10 = -0.00082864764;
                } else {
                    var10 = -1.1247333;
                }
            } else {
                if (input[0] < -0.48713797) {
                    var10 = 0.57563627;
                } else {
                    var10 = -0.4796091;
                }
            }
        } else {
            if (input[5] < -0.41518694) {
                if (input[5] < -1.3888807) {
                    var10 = 0.23645782;
                } else {
                    var10 = -0.7793922;
                }
            } else {
                if (input[4] < 0.2074156) {
                    var10 = 0.9273723;
                } else {
                    var10 = -0.2469747;
                }
            }
        }
    } else {
        if (input[0] < 0.67817247) {
            var10 = 1.8512614;
        } else {
            var10 = 0.50411797;
        }
    }
    var var11;
    if (input[2] < 1.0636872) {
        if (input[2] < -0.23701783) {
            if (input[2] < -0.3573539) {
                if (input[1] < -0.7672159) {
                    var11 = 0.97580034;
                } else {
                    var11 = -0.30522397;
                }
            } else {
                if (input[0] < 0.60175866) {
                    var11 = -1.0274;
                } else {
                    var11 = -0.10465603;
                }
            }
        } else {
            if (input[5] < -0.30659515) {
                if (input[5] < -0.78249985) {
                    var11 = -0.08365202;
                } else {
                    var11 = -0.74328655;
                }
            } else {
                if (input[0] < 0.48713797) {
                    var11 = 0.3155466;
                } else {
                    var11 = 1.7719309;
                }
            }
        }
    } else {
        if (input[0] < 0.67817247) {
            var11 = 1.7818393;
        } else {
            var11 = 0.49151498;
        }
    }
    var var12;
    if (input[2] < 1.0636872) {
        if (input[0] < 0.33431038) {
            if (input[3] < -0.37703776) {
                if (input[0] < -1.2894828) {
                    var12 = 0.0106483465;
                } else {
                    var12 = -1.0547341;
                }
            } else {
                if (input[0] < -0.48713797) {
                    var12 = 0.53632814;
                } else {
                    var12 = -0.43961722;
                }
            }
        } else {
            if (input[5] < -0.41518694) {
                if (input[5] < -1.3888807) {
                    var12 = 0.23136418;
                } else {
                    var12 = -0.7332175;
                }
            } else {
                if (input[4] < 0.2074156) {
                    var12 = 0.8819731;
                } else {
                    var12 = -0.23109467;
                }
            }
        }
    } else {
        var12 = 1.5637068;
    }
    var var13;
    if (input[2] < 1.0636872) {
        if (input[2] < -0.23701783) {
            if (input[2] < -0.3573539) {
                if (input[4] < 0.54347056) {
                    var13 = 0.076625526;
                } else {
                    var13 = -0.77750844;
                }
            } else {
                if (input[0] < 0.60175866) {
                    var13 = -0.967477;
                } else {
                    var13 = -0.124089055;
                }
            }
        } else {
            if (input[5] < -0.30659515) {
                if (input[5] < -0.78249985) {
                    var13 = -0.07157602;
                } else {
                    var13 = -0.70775855;
                }
            } else {
                if (input[0] < 0.48713797) {
                    var13 = 0.2984614;
                } else {
                    var13 = 1.6834677;
                }
            }
        }
    } else {
        if (input[0] < 0.67817247) {
            if (input[0] < -1.6715518) {
                var13 = 0.48758736;
            } else {
                var13 = 1.8834498;
            }
        } else {
            var13 = 0.44013444;
        }
    }
    var var14;
    if (input[2] < 1.0636872) {
        if (input[0] < 0.33431038) {
            if (input[3] < -0.37703776) {
                if (input[0] < -1.2894828) {
                    var14 = 0.018052293;
                } else {
                    var14 = -0.99161386;
                }
            } else {
                if (input[0] < -0.48713797) {
                    var14 = 0.5064774;
                } else {
                    var14 = -0.40254283;
                }
            }
        } else {
            if (input[5] < -0.41518694) {
                if (input[5] < -1.3888807) {
                    var14 = 0.2260381;
                } else {
                    var14 = -0.69354874;
                }
            } else {
                if (input[4] < 0.2074156) {
                    var14 = 0.8327883;
                } else {
                    var14 = -0.21859284;
                }
            }
        }
    } else {
        if (input[0] < 0.67817247) {
            if (input[0] < -1.6715518) {
                var14 = 0.4753975;
            } else {
                var14 = 1.8206681;
            }
        } else {
            var14 = 0.42913112;
        }
    }
    var var15;
    if (input[2] < 1.0636872) {
        if (input[2] < -0.23701783) {
            if (input[2] < -0.3573539) {
                if (input[1] < -0.7672159) {
                    var15 = 0.9234196;
                } else {
                    var15 = -0.255525;
                }
            } else {
                if (input[0] < 0.60175866) {
                    var15 = -0.9112994;
                } else {
                    var15 = -0.14180641;
                }
            }
        } else {
            if (input[5] < -0.30659515) {
                if (input[5] < -0.78249985) {
                    var15 = -0.060734224;
                } else {
                    var15 = -0.67420053;
                }
            } else {
                if (input[0] < 0.48713797) {
                    var15 = 0.28212908;
                } else {
                    var15 = 1.5995921;
                }
            }
        }
    } else {
        if (input[0] < 0.67817247) {
            if (input[0] < -1.6715518) {
                var15 = 0.46351242;
            } else {
                var15 = 1.7599792;
            }
        } else {
            var15 = 0.41840288;
        }
    }
    var var16;
    if (input[2] < 1.0636872) {
        if (input[0] < 0.33431038) {
            if (input[3] < -0.37703776) {
                if (input[0] < -1.2894828) {
                    var16 = 0.026957512;
                } else {
                    var16 = -0.93021625;
                }
            } else {
                if (input[0] < -0.48713797) {
                    var16 = 0.47113204;
                } else {
                    var16 = -0.36817807;
                }
            }
        } else {
            if (input[5] < -0.41518694) {
                if (input[5] < -1.3888807) {
                    var16 = 0.22052816;
                } else {
                    var16 = -0.65292376;
                }
            } else {
                if (input[4] < 0.2074156) {
                    var16 = 0.79185706;
                } else {
                    var16 = -0.20500481;
                }
            }
        }
    } else {
        if (input[0] < 0.67817247) {
            if (input[0] < -1.6715518) {
                var16 = 0.45192453;
            } else {
                var16 = 1.7013133;
            }
        } else {
            var16 = 0.40794277;
        }
    }
    var var17;
    if (input[2] < 1.0636872) {
        if (input[2] < -0.23701783) {
            if (input[2] < -0.3573539) {
                if (input[4] < 0.54347056) {
                    var17 = 0.09479057;
                } else {
                    var17 = -0.69396454;
                }
            } else {
                if (input[0] < 0.60175866) {
                    var17 = -0.8587022;
                } else {
                    var17 = -0.1580576;
                }
            }
        } else {
            if (input[5] < -0.30659515) {
                if (input[5] < -0.78249985) {
                    var17 = -0.05101433;
                } else {
                    var17 = -0.64258623;
                }
            } else {
                if (input[0] < 0.48713797) {
                    var17 = 0.26666626;
                } else {
                    var17 = 1.5198772;
                }
            }
        }
    } else {
        if (input[0] < 0.67817247) {
            if (input[0] < -1.6715518) {
                var17 = 0.44062653;
            } else {
                var17 = 1.644603;
            }
        } else {
            var17 = 0.3977444;
        }
    }
    var var18;
    if (input[2] < 1.0636872) {
        if (input[2] < -0.23701783) {
            if (input[2] < -0.3573539) {
                if (input[1] < -0.7672159) {
                    var18 = 0.88618624;
                } else {
                    var18 = -0.22576158;
                }
            } else {
                if (input[0] < 0.60175866) {
                    var18 = -0.82190055;
                } else {
                    var18 = -0.15410614;
                }
            }
        } else {
            if (input[5] < -0.30659515) {
                if (input[5] < -0.78249985) {
                    var18 = -0.0487823;
                } else {
                    var18 = -0.61848927;
                }
            } else {
                if (input[0] < 0.48713797) {
                    var18 = 0.25523785;
                } else {
                    var18 = 1.4692143;
                }
            }
        }
    } else {
        if (input[0] < 0.67817247) {
            if (input[0] < -1.6715518) {
                var18 = 0.42961082;
            } else {
                var18 = 1.5897827;
            }
        } else {
            var18 = 0.3878006;
        }
    }
    var var19;
    if (input[2] < 1.0636872) {
        if (input[0] < 0.33431038) {
            if (input[3] < -0.37703776) {
                if (input[0] < -1.2894828) {
                    var19 = 0.0407176;
                } else {
                    var19 = -0.85940105;
                }
            } else {
                if (input[0] < -0.48713797) {
                    var19 = 0.43111092;
                } else {
                    var19 = -0.32148853;
                }
            }
        } else {
            if (input[3] < -0.5923942) {
                if (input[0] < 0.48713797) {
                    var19 = 1.1880885;
                } else {
                    var19 = 0.07699604;
                }
            } else {
                if (input[5] < 0.40684107) {
                    var19 = -0.2611957;
                } else {
                    var19 = 1.0989614;
                }
            }
        }
    } else {
        if (input[0] < 0.67817247) {
            if (input[0] < -1.6715518) {
                var19 = 0.41887054;
            } else {
                var19 = 1.53679;
            }
        } else {
            var19 = 0.37810555;
        }
    }
    var var20;
    if (input[2] < 1.0636872) {
        if (input[0] < 0.33431038) {
            if (input[3] < -0.37703776) {
                if (input[0] < -1.2894828) {
                    var20 = 0.039190676;
                } else {
                    var20 = -0.8212056;
                }
            } else {
                if (input[0] < -0.48713797) {
                    var20 = 0.41314778;
                } else {
                    var20 = -0.3072002;
                }
            }
        } else {
            if (input[3] < -0.5923942) {
                if (input[0] < 0.48713797) {
                    var20 = 1.1484855;
                } else {
                    var20 = 0.07507115;
                }
            } else {
                if (input[5] < 0.40684107) {
                    var20 = -0.24906886;
                } else {
                    var20 = 1.0623292;
                }
            }
        }
    } else {
        if (input[1] < -0.7369836) {
            var20 = 1.6391728;
        } else {
            var20 = 0.68311214;
        }
    }
    var var21;
    if (input[2] < 1.0636872) {
        if (input[2] < -0.23701783) {
            if (input[2] < -0.3573539) {
                if (input[4] < 0.16835868) {
                    var21 = 0.15768296;
                } else {
                    var21 = -0.5206107;
                }
            } else {
                if (input[1] < 0.3432833) {
                    var21 = -0.7563014;
                } else {
                    var21 = -0.1291296;
                }
            }
        } else {
            if (input[5] < 0.16108814) {
                if (input[4] < -0.17134312) {
                    var21 = 0.071855806;
                } else {
                    var21 = -0.53436625;
                }
            } else {
                if (input[2] < -0.1609137) {
                    var21 = 1.2021619;
                } else {
                    var21 = 0.34267756;
                }
            }
        }
    } else {
        if (input[1] < -0.7369836) {
            var21 = 1.5981934;
        } else {
            var21 = 0.6574957;
        }
    }
    var var22;
    if (input[2] < 1.0636872) {
        if (input[0] < 0.33431038) {
            if (input[3] < -0.37703776) {
                if (input[0] < -1.2894828) {
                    var22 = 0.040286448;
                } else {
                    var22 = -0.7787411;
                }
            } else {
                if (input[5] < 0.20847629) {
                    var22 = -0.29501942;
                } else {
                    var22 = 0.4014654;
                }
            }
        } else {
            if (input[5] < -0.41518694) {
                if (input[5] < -1.3888807) {
                    var22 = 0.23111752;
                } else {
                    var22 = -0.5817355;
                }
            } else {
                if (input[4] < 0.2074156) {
                    var22 = 0.7145347;
                } else {
                    var22 = -0.17555031;
                }
            }
        }
    } else {
        if (input[1] < -0.7369836) {
            var22 = 1.5582386;
        } else {
            var22 = 0.6328394;
        }
    }
    var var23;
    if (input[2] < 1.0636872) {
        if (input[2] < -0.23701783) {
            if (input[2] < -0.3573539) {
                if (input[1] < -0.7672159) {
                    var23 = 0.8289463;
                } else {
                    var23 = -0.18733941;
                }
            } else {
                if (input[1] < 0.3432833) {
                    var23 = -0.7285938;
                } else {
                    var23 = -0.106432915;
                }
            }
        } else {
            if (input[5] < -0.30659515) {
                if (input[5] < -0.78249985) {
                    var23 = -0.02453885;
                } else {
                    var23 = -0.5506779;
                }
            } else {
                if (input[0] < 0.48713797) {
                    var23 = 0.22933753;
                } else {
                    var23 = 1.347672;
                }
            }
        }
    } else {
        if (input[1] < -0.7369836) {
            var23 = 1.5192826;
        } else {
            var23 = 0.6091078;
        }
    }
    var var24;
    if (input[2] < 1.0636872) {
        if (input[0] < 0.33431038) {
            if (input[3] < -0.37703776) {
                if (input[0] < -1.2894828) {
                    var24 = 0.04580107;
                } else {
                    var24 = -0.7342352;
                }
            } else {
                if (input[2] < -0.3573539) {
                    var24 = 0.8082226;
                } else {
                    var24 = -0.1387281;
                }
            }
        } else {
            if (input[3] < -0.5923942) {
                if (input[0] < 0.48713797) {
                    var24 = 1.0873736;
                } else {
                    var24 = 0.056072425;
                }
            } else {
                if (input[5] < 0.40684107) {
                    var24 = -0.221046;
                } else {
                    var24 = 0.9872369;
                }
            }
        }
    } else {
        if (input[1] < -0.7369836) {
            var24 = 1.4813004;
        } else {
            var24 = 0.5862665;
        }
    }
    var var25;
    if (input[2] < 1.0636872) {
        if (input[2] < -0.23701783) {
            if (input[2] < -0.5533548) {
                if (input[3] < -0.74148214) {
                    var25 = -0.34370756;
                } else {
                    var25 = 0.9167801;
                }
            } else {
                if (input[1] < -0.7672159) {
                    var25 = 0.22733371;
                } else {
                    var25 = -0.46828696;
                }
            }
        } else {
            if (input[5] < -0.30659515) {
                if (input[5] < -1.3888807) {
                    var25 = 0.23159969;
                } else {
                    var25 = -0.3203238;
                }
            } else {
                if (input[0] < -0.8118966) {
                    var25 = -0.2126849;
                } else {
                    var25 = 0.8700411;
                }
            }
        }
    } else {
        if (input[1] < -0.7369836) {
            var25 = 1.4442681;
        } else {
            var25 = 0.5642813;
        }
    }
    var var26;
    if (input[2] < 1.0636872) {
        if (input[0] < 0.33431038) {
            if (input[3] < -0.37703776) {
                if (input[0] < -1.2894828) {
                    var26 = 0.04433098;
                } else {
                    var26 = -0.68299603;
                }
            } else {
                if (input[2] < -0.3573539) {
                    var26 = 0.7823338;
                } else {
                    var26 = -0.130397;
                }
            }
        } else {
            if (input[3] < -0.5923942) {
                if (input[0] < 0.48713797) {
                    var26 = 1.043653;
                } else {
                    var26 = 0.06326313;
                }
            } else {
                if (input[5] < 0.40684107) {
                    var26 = -0.20766966;
                } else {
                    var26 = 0.94763297;
                }
            }
        }
    } else {
        if (input[1] < -0.7369836) {
            var26 = 1.4081612;
        } else {
            var26 = 0.54312056;
        }
    }
    var var27;
    if (input[2] < 1.0636872) {
        if (input[2] < -0.23701783) {
            if (input[2] < -0.5533548) {
                if (input[3] < -0.74148214) {
                    var27 = -0.3145345;
                } else {
                    var27 = 0.8680877;
                }
            } else {
                if (input[1] < -0.7542735) {
                    var27 = 0.017896717;
                } else {
                    var27 = -0.491316;
                }
            }
        } else {
            if (input[5] < -0.30659515) {
                if (input[5] < -0.78249985) {
                    var27 = -0.00058641436;
                } else {
                    var27 = -0.49157715;
                }
            } else {
                if (input[0] < 0.48713797) {
                    var27 = 0.21036242;
                } else {
                    var27 = 1.2486455;
                }
            }
        }
    } else {
        if (input[1] < -0.7369836) {
            var27 = 1.3729572;
        } else {
            var27 = 0.52275354;
        }
    }
    var var28;
    if (input[2] < 1.0636872) {
        if (input[2] < -0.23701783) {
            if (input[2] < -0.3573539) {
                if (input[4] < 0.16835868) {
                    var28 = 0.17050114;
                } else {
                    var28 = -0.42842865;
                }
            } else {
                if (input[1] < 0.3432833) {
                    var28 = -0.6535322;
                } else {
                    var28 = -0.044351198;
                }
            }
        } else {
            if (input[5] < 0.16108814) {
                if (input[4] < -0.17134312) {
                    var28 = 0.08944254;
                } else {
                    var28 = -0.4744502;
                }
            } else {
                if (input[2] < -0.1609137) {
                    var28 = 1.0361255;
                } else {
                    var28 = 0.28318533;
                }
            }
        }
    } else {
        if (input[1] < -0.7369836) {
            var28 = 1.3386334;
        } else {
            var28 = 0.5031504;
        }
    }
    var var29;
    if (input[2] < 1.0636872) {
        if (input[0] < 0.33431038) {
            if (input[3] < -0.37703776) {
                if (input[0] < -1.2894828) {
                    var29 = 0.032462694;
                } else {
                    var29 = -0.62891334;
                }
            } else {
                if (input[2] < -0.3573539) {
                    var29 = 0.7580654;
                } else {
                    var29 = -0.11937567;
                }
            }
        } else {
            if (input[5] < -0.41518694) {
                if (input[5] < -1.3888807) {
                    var29 = 0.22784042;
                } else {
                    var29 = -0.51506394;
                }
            } else {
                if (input[4] < 0.2074156) {
                    var29 = 0.642062;
                } else {
                    var29 = -0.13610719;
                }
            }
        }
    } else {
        if (input[1] < -0.7369836) {
            var29 = 1.3051674;
        } else {
            var29 = 0.4842825;
        }
    }
    var var30;
    if (input[2] < 1.0636872) {
        if (input[0] < 0.33431038) {
            if (input[3] < -0.37703776) {
                if (input[0] < -1.2894828) {
                    var30 = 0.031245327;
                } else {
                    var30 = -0.6009616;
                }
            } else {
                if (input[2] < -0.3573539) {
                    var30 = 0.7391138;
                } else {
                    var30 = -0.113865964;
                }
            }
        } else {
            if (input[5] < -0.41518694) {
                if (input[5] < -1.3888807) {
                    var30 = 0.22024587;
                } else {
                    var30 = -0.49446154;
                }
            } else {
                if (input[4] < 0.2074156) {
                    var30 = 0.61352605;
                } else {
                    var30 = -0.13066284;
                }
            }
        }
    } else {
        if (input[1] < -0.7369836) {
            var30 = 1.2725384;
        } else {
            var30 = 0.46612188;
        }
    }
    var var31;
    if (input[2] < 1.2425017) {
        if (input[2] < -0.23701783) {
            if (input[2] < -0.3573539) {
                if (input[4] < 0.16835868) {
                    var31 = 0.16492678;
                } else {
                    var31 = -0.38723636;
                }
            } else {
                if (input[1] < 0.3432833) {
                    var31 = -0.6312515;
                } else {
                    var31 = -0.012495614;
                }
            }
        } else {
            if (input[5] < -0.30659515) {
                if (input[5] < -0.78249985) {
                    var31 = 0.0069176676;
                } else {
                    var31 = -0.46685418;
                }
            } else {
                if (input[0] < -0.8118966) {
                    var31 = -0.19406943;
                } else {
                    var31 = 0.7362559;
                }
            }
        }
    } else {
        if (input[0] < -1.6715518) {
            var31 = 0.2520855;
        } else {
            var31 = 1.115723;
        }
    }
    var var32;
    if (input[2] < 1.2425017) {
        if (input[0] < 0.33431038) {
            if (input[3] < -0.37703776) {
                if (input[0] < -1.2894828) {
                    var32 = 0.030791093;
                } else {
                    var32 = -0.57095164;
                }
            } else {
                if (input[0] < -0.48713797) {
                    var32 = 0.34685937;
                } else {
                    var32 = -0.22601183;
                }
            }
        } else {
            if (input[5] < -0.41518694) {
                if (input[5] < -1.3888807) {
                    var32 = 0.2126737;
                } else {
                    var32 = -0.47015825;
                }
            } else {
                if (input[4] < 0.2074156) {
                    var32 = 0.56522936;
                } else {
                    var32 = -0.12118187;
                }
            }
        }
    } else {
        if (input[0] < -1.6715518) {
            var32 = 0.24578324;
        } else {
            var32 = 1.0785321;
        }
    }
    var var33;
    if (input[2] < 1.2425017) {
        if (input[2] < -0.23701783) {
            if (input[2] < -0.3573539) {
                if (input[1] < -0.7672159) {
                    var33 = 0.70784134;
                } else {
                    var33 = -0.118560486;
                }
            } else {
                if (input[1] < 0.3432833) {
                    var33 = -0.6040713;
                } else {
                    var33 = 0.0020906448;
                }
            }
        } else {
            if (input[5] < -0.30659515) {
                if (input[5] < -0.78249985) {
                    var33 = 0.010490752;
                } else {
                    var33 = -0.44645032;
                }
            } else {
                if (input[0] < -0.8118966) {
                    var33 = -0.19916254;
                } else {
                    var33 = 0.6948613;
                }
            }
        }
    } else {
        if (input[0] < -1.6715518) {
            var33 = 0.23963852;
        } else {
            var33 = 1.042581;
        }
    }
    var var34;
    if (input[2] < 1.2425017) {
        if (input[0] < 0.33431038) {
            if (input[3] < -0.37703776) {
                if (input[0] < -1.2894828) {
                    var34 = 0.034082413;
                } else {
                    var34 = -0.5391552;
                }
            } else {
                if (input[2] < -0.3573539) {
                    var34 = 0.69014513;
                } else {
                    var34 = -0.10291511;
                }
            }
        } else {
            if (input[3] < -0.5923942) {
                if (input[0] < 0.48713797) {
                    var34 = 0.9346623;
                } else {
                    var34 = 0.018602943;
                }
            } else {
                if (input[5] < 0.40684107) {
                    var34 = -0.14756976;
                } else {
                    var34 = 0.853992;
                }
            }
        }
    } else {
        if (input[0] < -1.6715518) {
            var34 = 0.23364754;
        } else {
            var34 = 1.0078281;
        }
    }
    var var35;
    if (input[2] < 1.2425017) {
        if (input[2] < -0.23701783) {
            if (input[2] < -0.3573539) {
                if (input[4] < 0.16835868) {
                    var35 = 0.16064085;
                } else {
                    var35 = -0.35155895;
                }
            } else {
                if (input[1] < 0.3432833) {
                    var35 = -0.57281506;
                } else {
                    var35 = 0.015517235;
                }
            }
        } else {
            if (input[5] < -0.30659515) {
                if (input[2] < -0.22179922) {
                    var35 = 0.3326153;
                } else {
                    var35 = -0.2219378;
                }
            } else {
                if (input[0] < -0.8118966) {
                    var35 = -0.18909328;
                } else {
                    var35 = 0.66382027;
                }
            }
        }
    } else {
        if (input[0] < 0.21968967) {
            var35 = 0.36969936;
        } else {
            var35 = 1.1346081;
        }
    }
    var var36;
    if (input[2] < 1.2425017) {
        if (input[0] < 0.33431038) {
            if (input[0] < -1.2894828) {
                if (input[0] < -1.5951381) {
                    var36 = -0.24999657;
                } else {
                    var36 = 0.3177147;
                }
            } else {
                if (input[3] < -0.35548106) {
                    var36 = -0.53715986;
                } else {
                    var36 = -0.008762567;
                }
            }
        } else {
            if (input[0] < 0.39162073) {
                var36 = 0.95100325;
            } else {
                if (input[5] < 0.40684107) {
                    var36 = -0.07978556;
                } else {
                    var36 = 0.622302;
                }
            }
        }
    } else {
        if (input[0] < 0.21968967) {
            var36 = 0.35737583;
        } else {
            var36 = 1.1062428;
        }
    }
    var var37;
    if (input[2] < 1.2425017) {
        if (input[2] < -0.23701783) {
            if (input[2] < -0.3573539) {
                if (input[1] < -0.7672159) {
                    var37 = 0.6690945;
                } else {
                    var37 = -0.106223784;
                }
            } else {
                if (input[1] < 0.3432833) {
                    var37 = -0.542594;
                } else {
                    var37 = 0.02855835;
                }
            }
        } else {
            if (input[5] < -0.30659515) {
                if (input[5] < -0.78249985) {
                    var37 = 0.022013044;
                } else {
                    var37 = -0.40369388;
                }
            } else {
                if (input[0] < -0.8118966) {
                    var37 = -0.18793933;
                } else {
                    var37 = 0.6325492;
                }
            }
        }
    } else {
        if (input[0] < 0.21968967) {
            var37 = 0.3454633;
        } else {
            var37 = 1.0785866;
        }
    }
    var var38;
    if (input[2] < 1.2425017) {
        if (input[0] < 0.33431038) {
            if (input[0] < -1.2894828) {
                if (input[0] < -1.5951381) {
                    var38 = -0.24109097;
                } else {
                    var38 = 0.3087899;
                }
            } else {
                if (input[3] < -0.35548106) {
                    var38 = -0.5052121;
                } else {
                    var38 = -0.012609273;
                }
            }
        } else {
            if (input[0] < 0.39162073) {
                var38 = 0.9298836;
            } else {
                if (input[5] < 0.40684107) {
                    var38 = -0.07457461;
                } else {
                    var38 = 0.5937144;
                }
            }
        }
    } else {
        if (input[0] < 0.21968967) {
            var38 = 0.33394802;
        } else {
            var38 = 1.051622;
        }
    }
    var var39;
    if (input[2] < 1.2425017) {
        if (input[0] < 0.33431038) {
            if (input[0] < -1.2894828) {
                if (input[0] < -1.5951381) {
                    var39 = -0.23506375;
                } else {
                    var39 = 0.29643822;
                }
            } else {
                if (input[0] < -0.8118966) {
                    var39 = -0.7332473;
                } else {
                    var39 = -0.11906967;
                }
            }
        } else {
            if (input[0] < 0.39162073) {
                var39 = 0.9066364;
            } else {
                if (input[5] < 0.40684107) {
                    var39 = -0.07107885;
                } else {
                    var39 = 0.5714502;
                }
            }
        }
    } else {
        if (input[0] < 0.21968967) {
            var39 = 0.32281622;
        } else {
            var39 = 1.0253315;
        }
    }
    var var40;
    if (input[2] < 1.2425017) {
        if (input[2] < -0.23701783) {
            if (input[2] < -0.3573539) {
                if (input[4] < 0.16835868) {
                    var40 = 0.15685482;
                } else {
                    var40 = -0.32709995;
                }
            } else {
                if (input[1] < 0.3432833) {
                    var40 = -0.50987846;
                } else {
                    var40 = 0.0434515;
                }
            }
        } else {
            if (input[5] < -0.30659515) {
                if (input[0] < 0.9456208) {
                    var40 = 0.008470706;
                } else {
                    var40 = -0.45807672;
                }
            } else {
                if (input[0] < -0.8118966) {
                    var40 = -0.17933083;
                } else {
                    var40 = 0.60279274;
                }
            }
        }
    } else {
        if (input[0] < 0.21968967) {
            var40 = 0.3120557;
        } else {
            var40 = 0.9996983;
        }
    }
    var var41;
    if (input[2] < 1.2425017) {
        if (input[0] < 0.33431038) {
            if (input[3] < -0.37703776) {
                if (input[0] < -1.2894828) {
                    var41 = 0.023336887;
                } else {
                    var41 = -0.44978037;
                }
            } else {
                if (input[2] < -0.3573539) {
                    var41 = 0.6517372;
                } else {
                    var41 = -0.08787132;
                }
            }
        } else {
            if (input[0] < 0.39162073) {
                var41 = 0.88004917;
            } else {
                if (input[3] < -0.241913) {
                    var41 = -0.1432951;
                } else {
                    var41 = 0.3577083;
                }
            }
        }
    } else {
        if (input[0] < 0.21968967) {
            var41 = 0.3016538;
        } else {
            var41 = 0.9747059;
        }
    }
    var var42;
    if (input[2] < 1.2425017) {
        if (input[0] < 0.33431038) {
            if (input[0] < -1.2894828) {
                if (input[0] < -1.5951381) {
                    var42 = -0.23369198;
                } else {
                    var42 = 0.2892823;
                }
            } else {
                if (input[0] < -0.8118966) {
                    var42 = -0.6871831;
                } else {
                    var42 = -0.10748686;
                }
            }
        } else {
            if (input[0] < 1.2703794) {
                if (input[3] < -0.5923942) {
                    var42 = 0.8414836;
                } else {
                    var42 = 0.13305901;
                }
            } else {
                if (input[1] < 0.046402354) {
                    var42 = -0.46130085;
                } else {
                    var42 = 0.13427328;
                }
            }
        }
    } else {
        if (input[0] < 0.21968967) {
            var42 = 0.29159877;
        } else {
            var42 = 0.95033836;
        }
    }
    var var43;
    if (input[2] < -0.23701783) {
        if (input[2] < -0.3573539) {
            if (input[1] < -0.7672159) {
                var43 = 0.63813096;
            } else {
                if (input[4] < -0.23648743) {
                    var43 = 0.31537223;
                } else {
                    var43 = -0.2453326;
                }
            }
        } else {
            if (input[1] < 0.3432833) {
                if (input[0] < 0.60175866) {
                    var43 = -0.5494423;
                } else {
                    var43 = -0.044345856;
                }
            } else {
                var43 = 0.056297112;
            }
        }
    } else {
        if (input[5] < -0.30659515) {
            if (input[1] < 0.53730524) {
                if (input[2] < -0.22179922) {
                    var43 = 0.32942984;
                } else {
                    var43 = -0.2705035;
                }
            } else {
                var43 = 0.36825943;
            }
        } else {
            if (input[0] < 0.48713797) {
                if (input[1] < -0.6323587) {
                    var43 = -0.12692137;
                } else {
                    var43 = 0.35430083;
                }
            } else {
                if (input[5] < -0.28365988) {
                    var43 = 0.11200752;
                } else {
                    var43 = 1.1850861;
                }
            }
        }
    }
    var var44;
    if (input[2] < -0.23701783) {
        if (input[2] < -0.3573539) {
            if (input[1] < -0.7672159) {
                var44 = 0.62217754;
            } else {
                if (input[0] < -0.31520692) {
                    var44 = -0.3057439;
                } else {
                    var44 = 0.19113766;
                }
            }
        } else {
            if (input[1] < 0.3432833) {
                if (input[0] < 0.60175866) {
                    var44 = -0.5265488;
                } else {
                    var44 = -0.043237306;
                }
            } else {
                var44 = 0.05488968;
            }
        }
    } else {
        if (input[5] < -0.30659515) {
            if (input[1] < 0.53730524) {
                if (input[4] < -0.537275) {
                    var44 = 0.09240273;
                } else {
                    var44 = -0.35765946;
                }
            } else {
                var44 = 0.35598424;
            }
        } else {
            if (input[0] < 0.48713797) {
                if (input[1] < -0.6323587) {
                    var44 = -0.12216177;
                } else {
                    var44 = 0.34012896;
                }
            } else {
                if (input[5] < -0.28365988) {
                    var44 = 0.10920715;
                } else {
                    var44 = 1.1406453;
                }
            }
        }
    }
    var var45;
    if (input[2] < -0.23701783) {
        if (input[2] < -0.3573539) {
            if (input[1] < -0.7672159) {
                var45 = 0.6066231;
            } else {
                if (input[4] < -0.23648743) {
                    var45 = 0.3050496;
                } else {
                    var45 = -0.22945392;
                }
            }
        } else {
            if (input[1] < 0.3432833) {
                if (input[0] < 0.60175866) {
                    var45 = -0.50460917;
                } else {
                    var45 = -0.04215641;
                }
            } else {
                var45 = 0.05351753;
            }
        }
    } else {
        if (input[5] < -0.30659515) {
            if (input[1] < 0.53730524) {
                if (input[2] < -0.22179922) {
                    var45 = 0.3188841;
                } else {
                    var45 = -0.2500863;
                }
            } else {
                var45 = 0.344118;
            }
        } else {
            if (input[0] < 0.48713797) {
                if (input[1] < -0.6323587) {
                    var45 = -0.117580704;
                } else {
                    var45 = 0.32652375;
                }
            } else {
                if (input[5] < -0.28365988) {
                    var45 = 0.10647698;
                } else {
                    var45 = 1.0978712;
                }
            }
        }
    }
    var var46;
    if (input[2] < -0.23701783) {
        if (input[2] < -0.3573539) {
            if (input[1] < -0.7672159) {
                var46 = 0.59145737;
            } else {
                if (input[0] < -0.31520692) {
                    var46 = -0.28700516;
                } else {
                    var46 = 0.18613267;
                }
            }
        } else {
            if (input[1] < 0.3432833) {
                if (input[0] < 0.60175866) {
                    var46 = -0.48358384;
                } else {
                    var46 = -0.04110241;
                }
            } else {
                var46 = 0.052179527;
            }
        }
    } else {
        if (input[5] < -0.30659515) {
            if (input[1] < -0.21757877) {
                if (input[0] < -1.2894828) {
                    var46 = 0.1864771;
                } else {
                    var46 = -0.3891208;
                }
            } else {
                if (input[0] < -1.041138) {
                    var46 = -0.32572803;
                } else {
                    var46 = 0.28218815;
                }
            }
        } else {
            if (input[0] < 0.48713797) {
                if (input[1] < -0.6323587) {
                    var46 = -0.113171294;
                } else {
                    var46 = 0.31346282;
                }
            } else {
                if (input[5] < -0.28365988) {
                    var46 = 0.10381508;
                } else {
                    var46 = 1.0567011;
                }
            }
        }
    }
    var var47;
    if (input[2] < 1.2425017) {
        if (input[0] < 0.33431038) {
            if (input[0] < -1.2894828) {
                if (input[0] < -1.5951381) {
                    var47 = -0.20116158;
                } else {
                    var47 = 0.27718246;
                }
            } else {
                if (input[0] < -0.8118966) {
                    var47 = -0.6270221;
                } else {
                    var47 = -0.08453558;
                }
            }
        } else {
            if (input[0] < 0.39162073) {
                var47 = 0.81206894;
            } else {
                if (input[5] < 0.40684107) {
                    var47 = -0.061787535;
                } else {
                    var47 = 0.4714489;
                }
            }
        }
    } else {
        if (input[0] < 0.21968967) {
            var47 = 0.23712972;
        } else {
            var47 = 0.8145725;
        }
    }
    var var48;
    if (input[2] < -0.23701783) {
        if (input[2] < -0.3573539) {
            if (input[1] < -0.7672159) {
                var48 = 0.57878417;
            } else {
                if (input[4] < -0.23648743) {
                    var48 = 0.2801034;
                } else {
                    var48 = -0.21215914;
                }
            }
        } else {
            if (input[1] < 0.3432833) {
                if (input[0] < 0.60175866) {
                    var48 = -0.46029145;
                } else {
                    var48 = -0.03853016;
                }
            } else {
                var48 = 0.052988436;
            }
        }
    } else {
        if (input[5] < -0.30659515) {
            if (input[1] < -0.21757877) {
                if (input[0] < -1.2894828) {
                    var48 = 0.17488556;
                } else {
                    var48 = -0.37085685;
                }
            } else {
                if (input[0] < -1.041138) {
                    var48 = -0.30190927;
                } else {
                    var48 = 0.27089298;
                }
            }
        } else {
            if (input[0] < 0.48713797) {
                if (input[4] < -0.1278525) {
                    var48 = -0.17220484;
                } else {
                    var48 = 0.267822;
                }
            } else {
                if (input[5] < -0.28365988) {
                    var48 = 0.10276413;
                } else {
                    var48 = 1.0017718;
                }
            }
        }
    }
    var var49;
    if (input[2] < -0.23701783) {
        if (input[2] < -0.3573539) {
            if (input[1] < -0.7672159) {
                var49 = 0.56431466;
            } else {
                if (input[0] < -0.31520692) {
                    var49 = -0.26598313;
                } else {
                    var49 = 0.17169414;
                }
            }
        } else {
            if (input[1] < 0.3432833) {
                if (input[0] < 0.60175866) {
                    var49 = -0.44111273;
                } else {
                    var49 = -0.03756695;
                }
            } else {
                var49 = 0.051663782;
            }
        }
    } else {
        if (input[5] < -0.30659515) {
            if (input[1] < 0.53730524) {
                if (input[4] < -0.537275) {
                    var49 = 0.09815743;
                } else {
                    var49 = -0.31599426;
                }
            } else {
                var49 = 0.31166828;
            }
        } else {
            if (input[0] < 0.48713797) {
                if (input[4] < -0.1278525) {
                    var49 = -0.16646475;
                } else {
                    var49 = 0.25666276;
                }
            } else {
                if (input[5] < -0.28365988) {
                    var49 = 0.10019493;
                } else {
                    var49 = 0.9642054;
                }
            }
        }
    }
    var var50;
    if (input[2] < -0.23701783) {
        if (input[2] < -0.5533548) {
            if (input[3] < -0.74148214) {
                var50 = -0.23880939;
            } else {
                if (input[0] < -1.2894828) {
                    var50 = 0.17661743;
                } else {
                    var50 = 0.7804722;
                }
            }
        } else {
            if (input[5] < 1.4450679) {
                if (input[1] < -0.7672159) {
                    var50 = 0.20824178;
                } else {
                    var50 = -0.33187038;
                }
            } else {
                if (input[1] < 0.2079739) {
                    var50 = 0.21949056;
                } else {
                    var50 = 0.050372124;
                }
            }
        }
    } else {
        if (input[5] < -0.30659515) {
            if (input[0] < 0.9456208) {
                if (input[5] < -0.765495) {
                    var50 = 0.26724914;
                } else {
                    var50 = -0.29452363;
                }
            } else {
                var50 = -0.37820765;
            }
        } else {
            if (input[0] < 0.48713797) {
                if (input[1] < -0.6323587) {
                    var50 = -0.108139135;
                } else {
                    var50 = 0.2851239;
                }
            } else {
                if (input[5] < -0.28365988) {
                    var50 = 0.0976902;
                } else {
                    var50 = 0.9280478;
                }
            }
        }
    }
    var var51;
    if (input[2] < 1.2425017) {
        if (input[0] < 0.33431038) {
            if (input[0] < -1.2894828) {
                if (input[0] < -1.5951381) {
                    var51 = -0.17588215;
                } else {
                    var51 = 0.26190668;
                }
            } else {
                if (input[0] < -0.8118966) {
                    var51 = -0.5763931;
                } else {
                    var51 = -0.07044281;
                }
            }
        } else {
            if (input[0] < 0.39162073) {
                var51 = 0.7609604;
            } else {
                if (input[5] < 0.40684107) {
                    var51 = -0.053774048;
                } else {
                    var51 = 0.41269398;
                }
            }
        }
    } else {
        if (input[0] < 0.21968967) {
            var51 = 0.20156835;
        } else {
            var51 = 0.7218575;
        }
    }
    var var52;
    if (input[2] < -0.23701783) {
        if (input[2] < -0.3573539) {
            if (input[4] < 0.16835868) {
                if (input[1] < -0.2345745) {
                    var52 = 0.60599566;
                } else {
                    var52 = -0.16208;
                }
            } else {
                if (input[5] < 1.4450679) {
                    var52 = -0.47869086;
                } else {
                    var52 = 0.20093079;
                }
            }
        } else {
            if (input[1] < 0.3432833) {
                if (input[0] < 0.60175866) {
                    var52 = -0.41074863;
                } else {
                    var52 = -0.026986694;
                }
            } else {
                var52 = 0.050873946;
            }
        }
    } else {
        if (input[5] < -0.30659515) {
            if (input[1] < -0.21757877) {
                if (input[0] < -1.2894828) {
                    var52 = 0.15483037;
                } else {
                    var52 = -0.34151146;
                }
            } else {
                if (input[0] < -1.041138) {
                    var52 = -0.2646887;
                } else {
                    var52 = 0.25279668;
                }
            }
        } else {
            if (input[0] < 0.48713797) {
                if (input[4] < -0.1278525) {
                    var52 = -0.15862428;
                } else {
                    var52 = 0.2411721;
                }
            } else {
                if (input[5] < -0.28365988) {
                    var52 = 0.09659233;
                } else {
                    var52 = 0.87973595;
                }
            }
        }
    }
    var var53;
    if (input[2] < -0.23701783) {
        if (input[2] < -0.3573539) {
            if (input[4] < 0.16835868) {
                if (input[1] < -0.2345745) {
                    var53 = 0.5817557;
                } else {
                    var53 = -0.15498905;
                }
            } else {
                if (input[5] < 1.4450679) {
                    var53 = -0.45954323;
                } else {
                    var53 = 0.1942332;
                }
            }
        } else {
            if (input[1] < 0.3432833) {
                if (input[0] < 0.60175866) {
                    var53 = -0.39363396;
                } else {
                    var53 = -0.026312066;
                }
            } else {
                var53 = 0.04960213;
            }
        }
    } else {
        if (input[5] < -0.30659515) {
            if (input[1] < -0.21757877) {
                if (input[0] < -1.2894828) {
                    var53 = 0.1509596;
                } else {
                    var53 = -0.32785088;
                }
            } else {
                if (input[0] < -1.041138) {
                    var53 = -0.2580715;
                } else {
                    var53 = 0.24226342;
                }
            }
        } else {
            if (input[0] < 0.48713797) {
                if (input[4] < -0.1278525) {
                    var53 = -0.15333685;
                } else {
                    var53 = 0.23112336;
                }
            } else {
                if (input[5] < -0.28365988) {
                    var53 = 0.094177626;
                } else {
                    var53 = 0.8467461;
                }
            }
        }
    }
    var var54;
    if (input[2] < -0.23701783) {
        if (input[2] < -0.5533548) {
            if (input[3] < -0.74148214) {
                var54 = -0.2135971;
            } else {
                if (input[0] < -1.2894828) {
                    var54 = 0.17358093;
                } else {
                    var54 = 0.71224254;
                }
            }
        } else {
            if (input[2] < -0.5199391) {
                var54 = -0.4834384;
            } else {
                if (input[2] < -0.49795333) {
                    var54 = 0.32485992;
                } else {
                    var54 = -0.1811925;
                }
            }
        }
    } else {
        if (input[5] < -0.30659515) {
            if (input[0] < 0.9456208) {
                if (input[5] < -0.765495) {
                    var54 = 0.24271186;
                } else {
                    var54 = -0.2660081;
                }
            } else {
                var54 = -0.3414963;
            }
        } else {
            if (input[0] < 0.48713797) {
                if (input[1] < -0.6323587) {
                    var54 = -0.10323429;
                } else {
                    var54 = 0.25944382;
                }
            } else {
                if (input[5] < -0.28365988) {
                    var54 = 0.0918232;
                } else {
                    var54 = 0.8149933;
                }
            }
        }
    }
    var var55;
    if (input[2] < 1.2425017) {
        if (input[0] < 0.33431038) {
            if (input[5] < 0.071269795) {
                if (input[4] < -0.2571168) {
                    var55 = 0.026028171;
                } else {
                    var55 = -0.37505656;
                }
            } else {
                if (input[1] < -0.63798934) {
                    var55 = 0.37803555;
                } else {
                    var55 = -0.10619799;
                }
            }
        } else {
            if (input[0] < 0.39162073) {
                var55 = 0.69443625;
            } else {
                if (input[5] < 0.40684107) {
                    var55 = -0.04493847;
                } else {
                    var55 = 0.3630828;
                }
            }
        }
    } else {
        if (input[0] < 0.21968967) {
            var55 = 0.17035776;
        } else {
            var55 = 0.64027447;
        }
    }
    var var56;
    if (input[2] < -0.23701783) {
        if (input[4] < 0.16835868) {
            if (input[1] < -0.2345745) {
                if (input[2] < -0.3573539) {
                    var56 = 0.54521334;
                } else {
                    var56 = -0.21474572;
                }
            } else {
                if (input[0] < -1.2894828) {
                    var56 = 0.17189637;
                } else {
                    var56 = -0.23897043;
                }
            }
        } else {
            if (input[5] < 1.4450679) {
                if (input[2] < -0.3491417) {
                    var56 = -0.46592996;
                } else {
                    var56 = -0.10079346;
                }
            } else {
                var56 = 0.15120697;
            }
        }
    } else {
        if (input[5] < -0.30659515) {
            if (input[1] < -0.21757877) {
                if (input[0] < -1.2894828) {
                    var56 = 0.14046688;
                } else {
                    var56 = -0.30658615;
                }
            } else {
                if (input[0] < -1.041138) {
                    var56 = -0.23559323;
                } else {
                    var56 = 0.2251908;
                }
            }
        } else {
            if (input[0] < 0.48713797) {
                if (input[1] < -0.6323587) {
                    var56 = -0.09883862;
                } else {
                    var56 = 0.24922608;
                }
            } else {
                if (input[5] < -0.28365988) {
                    var56 = 0.09065094;
                } else {
                    var56 = 0.77245104;
                }
            }
        }
    }
    var var57;
    if (input[2] < -0.23701783) {
        if (input[2] < -0.5533548) {
            if (input[3] < -0.74148214) {
                var57 = -0.19396459;
            } else {
                if (input[0] < -1.2894828) {
                    var57 = 0.16759892;
                } else {
                    var57 = 0.66344494;
                }
            }
        } else {
            if (input[2] < -0.5199391) {
                var57 = -0.44745752;
            } else {
                if (input[2] < -0.4864874) {
                    var57 = 0.24918258;
                } else {
                    var57 = -0.17988344;
                }
            }
        }
    } else {
        if (input[5] < -0.30659515) {
            if (input[0] < 0.9456208) {
                if (input[5] < -0.765495) {
                    var57 = 0.22592977;
                } else {
                    var57 = -0.24714594;
                }
            } else {
                var57 = -0.3183955;
            }
        } else {
            if (input[0] < 0.48713797) {
                if (input[4] < -0.1278525) {
                    var57 = -0.14751868;
                } else {
                    var57 = 0.20971878;
                }
            } else {
                if (input[5] < -0.28365988) {
                    var57 = 0.08838463;
                } else {
                    var57 = 0.7434843;
                }
            }
        }
    }
    var var58;
    if (input[2] < -0.23701783) {
        if (input[2] < -0.5533548) {
            if (input[3] < -0.74148214) {
                var58 = -0.186691;
            } else {
                if (input[0] < -1.2894828) {
                    var58 = 0.16340886;
                } else {
                    var58 = 0.64685863;
                }
            }
        } else {
            if (input[2] < -0.5199391) {
                var58 = -0.4306779;
            } else {
                if (input[2] < -0.47950706) {
                    var58 = 0.20323002;
                } else {
                    var58 = -0.18782139;
                }
            }
        }
    } else {
        if (input[5] < -0.30659515) {
            if (input[1] < -0.21757877) {
                if (input[0] < -1.2894828) {
                    var58 = 0.13130704;
                } else {
                    var58 = -0.28774256;
                }
            } else {
                if (input[0] < -1.041138) {
                    var58 = -0.22352467;
                } else {
                    var58 = 0.21033643;
                }
            }
        } else {
            if (input[0] < 0.48713797) {
                if (input[1] < -0.6323587) {
                    var58 = -0.09853106;
                } else {
                    var58 = 0.23444076;
                }
            } else {
                if (input[5] < -0.28365988) {
                    var58 = 0.08617516;
                } else {
                    var58 = 0.71560365;
                }
            }
        }
    }
    var var59;
    if (input[2] < 1.2425017) {
        if (input[0] < 0.33431038) {
            if (input[5] < 0.071269795) {
                if (input[1] < 0.53730524) {
                    var59 = -0.2859685;
                } else {
                    var59 = 0.13771753;
                }
            } else {
                if (input[1] < -0.63798934) {
                    var59 = 0.35394078;
                } else {
                    var59 = -0.08986613;
                }
            }
        } else {
            if (input[0] < 0.39162073) {
                var59 = 0.63068694;
            } else {
                if (input[3] < -0.241913) {
                    var59 = -0.082106754;
                } else {
                    var59 = 0.21089625;
                }
            }
        }
    } else {
        if (input[0] < 0.21968967) {
            var59 = 0.14209823;
        } else {
            var59 = 0.5684792;
        }
    }
    var var60;
    if (input[2] < -0.23701783) {
        if (input[4] < 0.16835868) {
            if (input[1] < -0.2345745) {
                if (input[2] < -0.3573539) {
                    var60 = 0.50696605;
                } else {
                    var60 = -0.18727656;
                }
            } else {
                if (input[0] < -1.2894828) {
                    var60 = 0.16157036;
                } else {
                    var60 = -0.20918322;
                }
            }
        } else {
            if (input[5] < 1.4450679) {
                if (input[2] < -0.3491417) {
                    var60 = -0.42086157;
                } else {
                    var60 = -0.086834334;
                }
            } else {
                var60 = 0.13654804;
            }
        }
    } else {
        if (input[0] < 1.2703794) {
            if (input[0] < 0.5444483) {
                if (input[1] < -0.6323587) {
                    var60 = -0.18320678;
                } else {
                    var60 = 0.1516652;
                }
            } else {
                if (input[0] < 0.7736897) {
                    var60 = 0.67793936;
                } else {
                    var60 = 0.17381878;
                }
            }
        } else {
            var60 = -0.30033734;
        }
    }
    var var61;
    if (input[2] < 1.2425017) {
        if (input[0] < 0.33431038) {
            if (input[5] < 0.071269795) {
                if (input[1] < 0.53730524) {
                    var61 = -0.2719734;
                } else {
                    var61 = 0.13402224;
                }
            } else {
                if (input[1] < -0.63798934) {
                    var61 = 0.33491394;
                } else {
                    var61 = -0.08289274;
                }
            }
        } else {
            if (input[3] < -0.5923942) {
                if (input[0] < 0.48713797) {
                    var61 = 0.6185112;
                } else {
                    var61 = -0.05701294;
                }
            } else {
                if (input[5] < 0.40684107) {
                    var61 = -0.08230276;
                } else {
                    var61 = 0.45617294;
                }
            }
        }
    } else {
        if (input[0] < -1.6715518) {
            var61 = 0.050141525;
        } else {
            var61 = 0.45709053;
        }
    }
    var var62;
    if (input[2] < -0.23701783) {
        if (input[4] < 0.16835868) {
            if (input[1] < -0.15656208) {
                if (input[2] < -0.3573539) {
                    var62 = 0.40004316;
                } else {
                    var62 = -0.1747963;
                }
            } else {
                if (input[0] < -1.2894828) {
                    var62 = 0.1596035;
                } else {
                    var62 = -0.22515026;
                }
            }
        } else {
            if (input[5] < 1.4450679) {
                if (input[2] < -0.3491417) {
                    var62 = -0.4016893;
                } else {
                    var62 = -0.08259106;
                }
            } else {
                if (input[0] < -1.4423105) {
                    var62 = 0.03605919;
                } else {
                    var62 = 0.13939375;
                }
            }
        }
    } else {
        if (input[5] < -0.30659515) {
            if (input[0] < 0.9456208) {
                if (input[5] < -0.765495) {
                    var62 = 0.20310108;
                } else {
                    var62 = -0.22355376;
                }
            } else {
                var62 = -0.28758252;
            }
        } else {
            if (input[0] < -0.8118966) {
                if (input[0] < -1.3658967) {
                    var62 = 0.1596105;
                } else {
                    var62 = -0.39988405;
                }
            } else {
                if (input[0] < 0.48713797) {
                    var62 = 0.20903106;
                } else {
                    var62 = 0.5480899;
                }
            }
        }
    }
    var var63;
    if (input[2] < -0.23701783) {
        if (input[2] < -0.5533548) {
            if (input[3] < -0.74148214) {
                var63 = -0.15323344;
            } else {
                var63 = 0.4882632;
            }
        } else {
            if (input[2] < -0.5199391) {
                var63 = -0.3821604;
            } else {
                if (input[2] < -0.4864874) {
                    var63 = 0.21145974;
                } else {
                    var63 = -0.1497476;
                }
            }
        }
    } else {
        if (input[5] < -0.30659515) {
            if (input[0] < 0.9456208) {
                if (input[5] < -0.765495) {
                    var63 = 0.19439676;
                } else {
                    var63 = -0.21517038;
                }
            } else {
                var63 = -0.27799645;
            }
        } else {
            if (input[0] < -0.8118966) {
                if (input[0] < -1.3658967) {
                    var63 = 0.15429026;
                } else {
                    var63 = -0.38988686;
                }
            } else {
                if (input[0] < 0.48713797) {
                    var63 = 0.20066987;
                } else {
                    var63 = 0.5261661;
                }
            }
        }
    }
    var var64;
    if (input[2] < 1.2425017) {
        if (input[5] < 0.20847629) {
            if (input[3] < -0.5923942) {
                if (input[0] < -0.41072416) {
                    var64 = -0.024413224;
                } else {
                    var64 = 0.5728974;
                }
            } else {
                if (input[4] < -0.1348461) {
                    var64 = 0.025484357;
                } else {
                    var64 = -0.29557744;
                }
            }
        } else {
            if (input[5] < 0.4760033) {
                if (input[0] < 0.7354828) {
                    var64 = 0.639283;
                } else {
                    var64 = 0.011466217;
                }
            } else {
                if (input[2] < -0.3491417) {
                    var64 = -0.17990457;
                } else {
                    var64 = 0.18693826;
                }
            }
        }
    } else {
        if (input[0] < 0.21968967) {
            var64 = 0.11199518;
        } else {
            var64 = 0.49903488;
        }
    }
    var var65;
    if (input[2] < 1.2425017) {
        if (input[1] < -0.86739993) {
            var65 = -0.28318354;
        } else {
            if (input[1] < -0.7672159) {
                if (input[2] < 0.6241359) {
                    var65 = 0.45448586;
                } else {
                    var65 = 0.08377514;
                }
            } else {
                if (input[1] < -0.5369133) {
                    var65 = -0.21390367;
                } else {
                    var65 = 0.05086259;
                }
            }
        }
    } else {
        if (input[0] < 0.21968967) {
            var65 = 0.108261876;
        } else {
            var65 = 0.4865589;
        }
    }
    var var66;
    if (input[0] < 0.20058621) {
        if (input[5] < 0.071269795) {
            if (input[1] < 0.53730524) {
                if (input[4] < -0.537275) {
                    var66 = 0.12633495;
                } else {
                    var66 = -0.2932457;
                }
            } else {
                if (input[1] < 1.198392) {
                    var66 = 0.24205743;
                } else {
                    var66 = -0.113484;
                }
            }
        } else {
            if (input[5] < 0.22628298) {
                if (input[0] < -1.6715518) {
                    var66 = 0.035533905;
                } else {
                    var66 = 0.39130518;
                }
            } else {
                if (input[2] < -0.3491417) {
                    var66 = -0.27834022;
                } else {
                    var66 = 0.180074;
                }
            }
        }
    } else {
        if (input[0] < 1.2703794) {
            if (input[4] < 0.2074156) {
                if (input[4] < -0.83149284) {
                    var66 = -0.114439905;
                } else {
                    var66 = 0.34598652;
                }
            } else {
                if (input[1] < -0.7730488) {
                    var66 = 0.08168068;
                } else {
                    var66 = -0.22364032;
                }
            }
        } else {
            if (input[5] < 0.591077) {
                if (input[1] < 0.046402354) {
                    var66 = -0.27133474;
                } else {
                    var66 = -0.042901993;
                }
            } else {
                var66 = 0.14168052;
            }
        }
    }
    var var67;
    if (input[2] < -0.23701783) {
        if (input[2] < -0.5533548) {
            if (input[3] < -0.74148214) {
                if (input[0] < -0.52534485) {
                    var67 = -0.16000037;
                } else {
                    var67 = -0.041829493;
                }
            } else {
                if (input[0] < -1.2894828) {
                    var67 = 0.13296281;
                } else {
                    var67 = 0.5403313;
                }
            }
        } else {
            if (input[2] < -0.5199391) {
                var67 = -0.34517106;
            } else {
                if (input[2] < -0.4864874) {
                    var67 = 0.20256706;
                } else {
                    var67 = -0.13747641;
                }
            }
        }
    } else {
        if (input[0] < 1.2703794) {
            if (input[0] < 0.5444483) {
                if (input[1] < -0.6323587) {
                    var67 = -0.1555674;
                } else {
                    var67 = 0.12471862;
                }
            } else {
                if (input[0] < 0.7736897) {
                    var67 = 0.57542866;
                } else {
                    var67 = 0.13144131;
                }
            }
        } else {
            var67 = -0.25781748;
        }
    }
    var var68;
    if (input[2] < 1.2425017) {
        if (input[5] < 0.20847629) {
            if (input[3] < -0.5923942) {
                if (input[0] < -0.41072416) {
                    var68 = -0.022539826;
                } else {
                    var68 = 0.52819115;
                }
            } else {
                if (input[4] < -0.1348461) {
                    var68 = 0.019700296;
                } else {
                    var68 = -0.2690844;
                }
            }
        } else {
            if (input[5] < 0.4760033) {
                if (input[0] < 0.7354828) {
                    var68 = 0.5899638;
                } else {
                    var68 = 0.011314392;
                }
            } else {
                if (input[2] < -0.3491417) {
                    var68 = -0.160027;
                } else {
                    var68 = 0.17330705;
                }
            }
        }
    } else {
        if (input[0] < 0.21968967) {
            var68 = 0.09413681;
        } else {
            var68 = 0.45135957;
        }
    }
    var var69;
    if (input[0] < 0.20058621) {
        if (input[5] < 0.071269795) {
            if (input[1] < 0.53730524) {
                if (input[4] < -0.537275) {
                    var69 = 0.11956616;
                } else {
                    var69 = -0.27113652;
                }
            } else {
                if (input[1] < 1.198392) {
                    var69 = 0.22917493;
                } else {
                    var69 = -0.106083296;
                }
            }
        } else {
            if (input[1] < -0.63798934) {
                if (input[1] < -0.7672159) {
                    var69 = 0.42311746;
                } else {
                    var69 = 0.107956186;
                }
            } else {
                if (input[2] < -0.3491417) {
                    var69 = -0.22071679;
                } else {
                    var69 = 0.13151519;
                }
            }
        }
    } else {
        if (input[0] < 1.2703794) {
            if (input[3] < -0.5923942) {
                var69 = 0.51058453;
            } else {
                if (input[2] < -0.23701783) {
                    var69 = -0.18279551;
                } else {
                    var69 = 0.30718517;
                }
            }
        } else {
            if (input[5] < 0.591077) {
                if (input[1] < 0.046402354) {
                    var69 = -0.25012484;
                } else {
                    var69 = -0.03678303;
                }
            } else {
                var69 = 0.13707505;
            }
        }
    }
    var var70;
    if (input[2] < 1.2425017) {
        if (input[5] < 0.11682032) {
            if (input[4] < -0.1348461) {
                if (input[4] < -0.32507086) {
                    var70 = -0.07887587;
                } else {
                    var70 = 0.30333295;
                }
            } else {
                if (input[3] < -0.5923942) {
                    var70 = 0.094708346;
                } else {
                    var70 = -0.3044;
                }
            }
        } else {
            if (input[2] < -0.5199391) {
                if (input[0] < -0.48713797) {
                    var70 = -0.26322785;
                } else {
                    var70 = -0.035863496;
                }
            } else {
                if (input[4] < 0.2074156) {
                    var70 = 0.42639562;
                } else {
                    var70 = 0.068314366;
                }
            }
        }
    } else {
        if (input[0] < 0.21968967) {
            if (input[0] < -1.6715518) {
                var70 = 0.025886154;
            } else {
                var70 = 0.099644855;
            }
        } else {
            var70 = 0.43239594;
        }
    }
    var var71;
    if (input[2] < 1.2425017) {
        if (input[1] < -0.86739993) {
            var71 = -0.2525275;
        } else {
            if (input[1] < -0.7672159) {
                if (input[2] < 0.6241359) {
                    var71 = 0.3926539;
                } else {
                    var71 = 0.08086758;
                }
            } else {
                if (input[1] < -0.5369133) {
                    var71 = -0.18370728;
                } else {
                    var71 = 0.045914307;
                }
            }
        }
    } else {
        if (input[0] < 0.21968967) {
            if (input[0] < -1.6715518) {
                var71 = 0.025239183;
            } else {
                var71 = 0.09715386;
            }
        } else {
            var71 = 0.42158586;
        }
    }
    var var72;
    if (input[0] < 0.20058621) {
        if (input[5] < 0.071269795) {
            if (input[5] < -0.22131804) {
                if (input[1] < 0.53730524) {
                    var72 = -0.098433524;
                } else {
                    var72 = 0.20989445;
                }
            } else {
                var72 = -0.29649907;
            }
        } else {
            if (input[1] < -0.63798934) {
                if (input[0] < -1.4423105) {
                    var72 = 0.045797538;
                } else {
                    var72 = 0.33904812;
                }
            } else {
                if (input[2] < -0.3491417) {
                    var72 = -0.20605819;
                } else {
                    var72 = 0.12231659;
                }
            }
        }
    } else {
        if (input[0] < 1.2703794) {
            if (input[3] < -0.5923942) {
                var72 = 0.4854004;
            } else {
                if (input[2] < -0.23701783) {
                    var72 = -0.16796473;
                } else {
                    var72 = 0.2795058;
                }
            }
        } else {
            if (input[5] < 0.591077) {
                if (input[1] < 0.046402354) {
                    var72 = -0.23381996;
                } else {
                    var72 = -0.036114693;
                }
            } else {
                var72 = 0.13079242;
            }
        }
    }
    var var73;
    if (input[0] < 0.20058621) {
        if (input[5] < 0.071269795) {
            if (input[5] < -0.22131804) {
                if (input[1] < 0.53730524) {
                    var73 = -0.09421491;
                } else {
                    var73 = 0.20289803;
                }
            } else {
                var73 = -0.28414485;
            }
        } else {
            if (input[5] < 0.22628298) {
                if (input[0] < -1.6715518) {
                    var73 = 0.02155037;
                } else {
                    var73 = 0.35018846;
                }
            } else {
                if (input[2] < -0.3491417) {
                    var73 = -0.23663317;
                } else {
                    var73 = 0.15201683;
                }
            }
        }
    } else {
        if (input[4] < -0.40474087) {
            if (input[5] < -1.3888807) {
                if (input[0] < 0.5444483) {
                    var73 = -0.008218956;
                } else {
                    var73 = 0.19492607;
                }
            } else {
                if (input[1] < -0.21757877) {
                    var73 = -0.24920444;
                } else {
                    var73 = -0.035211753;
                }
            }
        } else {
            if (input[4] < 0.2074156) {
                if (input[1] < 0.0678817) {
                    var73 = 0.38989303;
                } else {
                    var73 = -0.055123996;
                }
            } else {
                if (input[5] < 0.11682032) {
                    var73 = -0.21983059;
                } else {
                    var73 = 0.07519217;
                }
            }
        }
    }
    var var74;
    if (input[2] < 1.2425017) {
        if (input[1] < -0.86739993) {
            var74 = -0.23394635;
        } else {
            if (input[1] < -0.7672159) {
                if (input[2] < 0.6241359) {
                    var74 = 0.3569214;
                } else {
                    var74 = 0.06997853;
                }
            } else {
                if (input[1] < -0.5369133) {
                    var74 = -0.16902432;
                } else {
                    var74 = 0.04253465;
                }
            }
        }
    } else {
        if (input[0] < 0.21968967) {
            if (input[0] < -1.6715518) {
                var74 = 0.021011734;
            } else {
                var74 = 0.08911552;
            }
        } else {
            var74 = 0.39431116;
        }
    }
    var var75;
    if (input[2] < 1.2425017) {
        if (input[5] < 0.20847629) {
            if (input[3] < -0.5923942) {
                if (input[2] < -0.67185503) {
                    var75 = -0.13795267;
                } else {
                    var75 = 0.34707102;
                }
            } else {
                if (input[4] < -0.1348461) {
                    var75 = 0.009049035;
                } else {
                    var75 = -0.22334805;
                }
            }
        } else {
            if (input[5] < 0.4760033) {
                if (input[0] < 0.7354828) {
                    var75 = 0.50730234;
                } else {
                    var75 = 0.008211327;
                }
            } else {
                if (input[2] < -0.3491417) {
                    var75 = -0.13497446;
                } else {
                    var75 = 0.14635025;
                }
            }
        }
    } else {
        if (input[0] < 0.21968967) {
            if (input[0] < -1.6715518) {
                var75 = 0.02048645;
            } else {
                var75 = 0.08688774;
            }
        } else {
            var75 = 0.3844532;
        }
    }
    var var76;
    if (input[0] < 0.20058621) {
        if (input[0] < -1.2894828) {
            if (input[1] < -0.76506996) {
                var76 = -0.12315502;
            } else {
                if (input[0] < -1.6715518) {
                    var76 = 0.019974137;
                } else {
                    var76 = 0.17893463;
                }
            }
        } else {
            if (input[0] < -0.8118966) {
                var76 = -0.34518757;
            } else {
                if (input[1] < -0.20727533) {
                    var76 = 0.124913275;
                } else {
                    var76 = -0.09793368;
                }
            }
        }
    } else {
        if (input[4] < -0.40474087) {
            if (input[5] < -1.3888807) {
                if (input[0] < 0.5444483) {
                    var76 = -0.009303093;
                } else {
                    var76 = 0.18876342;
                }
            } else {
                if (input[1] < -0.21757877) {
                    var76 = -0.23569308;
                } else {
                    var76 = -0.03202057;
                }
            }
        } else {
            if (input[4] < 0.2074156) {
                if (input[1] < 0.0678817) {
                    var76 = 0.36160764;
                } else {
                    var76 = -0.05364132;
                }
            } else {
                if (input[5] < 0.11682032) {
                    var76 = -0.20294964;
                } else {
                    var76 = 0.0777052;
                }
            }
        }
    }
    var var77;
    if (input[2] < 1.2425017) {
        if (input[1] < -0.86739993) {
            var77 = -0.2246034;
        } else {
            if (input[1] < -0.7672159) {
                if (input[2] < 0.6241359) {
                    var77 = 0.32830963;
                } else {
                    var77 = 0.07187023;
                }
            } else {
                if (input[1] < -0.5369133) {
                    var77 = -0.15645611;
                } else {
                    var77 = 0.039323375;
                }
            }
        }
    } else {
        if (input[0] < 0.21968967) {
            if (input[0] < -1.6715518) {
                var77 = 0.019474793;
            } else {
                var77 = 0.08605652;
            }
        } else {
            var77 = 0.36580163;
        }
    }
    var var78;
    if (input[2] < 1.2425017) {
        if (input[5] < 0.20847629) {
            if (input[3] < -0.5923942) {
                if (input[2] < -0.67185503) {
                    var78 = -0.13140056;
                } else {
                    var78 = 0.32357317;
                }
            } else {
                if (input[4] < -0.1348461) {
                    var78 = 0.007523128;
                } else {
                    var78 = -0.20956405;
                }
            }
        } else {
            if (input[5] < 0.4760033) {
                if (input[0] < 0.7354828) {
                    var78 = 0.47615638;
                } else {
                    var78 = 0.0028772354;
                }
            } else {
                if (input[4] < 0.3936586) {
                    var78 = -0.20424452;
                } else {
                    var78 = 0.07974491;
                }
            }
        }
    } else {
        if (input[0] < 0.21968967) {
            if (input[0] < -1.6715518) {
                var78 = 0.018988037;
            } else {
                var78 = 0.083905034;
            }
        } else {
            var78 = 0.35665664;
        }
    }
    var var79;
    if (input[0] < 0.20058621) {
        if (input[0] < -1.2894828) {
            if (input[1] < -0.76506996) {
                var79 = -0.110925674;
            } else {
                if (input[0] < -1.6715518) {
                    var79 = 0.01851349;
                } else {
                    var79 = 0.16797867;
                }
            }
        } else {
            if (input[0] < -0.8118966) {
                var79 = -0.32458097;
            } else {
                if (input[1] < -0.20727533) {
                    var79 = 0.1158795;
                } else {
                    var79 = -0.09352982;
                }
            }
        }
    } else {
        if (input[4] < -0.40474087) {
            if (input[5] < -1.3888807) {
                if (input[0] < 0.5444483) {
                    var79 = -0.010241699;
                } else {
                    var79 = 0.18287316;
                }
            } else {
                if (input[1] < -0.21757877) {
                    var79 = -0.22286491;
                } else {
                    var79 = -0.02709694;
                }
            }
        } else {
            if (input[4] < 0.2074156) {
                if (input[1] < 0.0678817) {
                    var79 = 0.33538744;
                } else {
                    var79 = -0.05221195;
                }
            } else {
                if (input[5] < 0.11682032) {
                    var79 = -0.18724696;
                } else {
